SVM-light Version V6.20
0 # kernel type
3 # kernel parameter -d 
1 # kernel parameter -g 
1 # kernel parameter -s 
1 # kernel parameter -r 
empty# kernel parameter -u 
137 # highest feature index 
55 # number of training documents 
2 # number of support vectors plus 1 
0 # threshold b, each following line is a SV (starting with alpha*y)
1 1:0.21622238 2:-0.38804173 3:0.28781921 4:0.58494681 5:-0.1187593 6:-0.23270886 7:-0.42884874 8:0.11501545 9:0.045321614 10:0.20499685 11:-0.36374989 12:0.026920019 13:-0.26638839 14:0.31935626 15:-0.24137522 16:-0.66906333 17:-0.56779557 18:-0.51432955 19:-0.064878568 20:-0.93114871 21:0.74502784 22:0.63868952 23:0.48403811 24:-0.30912539 25:-0.83640093 26:-0.23659091 27:0.90452087 28:-0.19505942 29:-0.32683581 30:0.16703017 31:0.19913639 32:-0.091525681 33:1.0502151 34:0.45911714 35:0.52375591 36:-0.56972396 37:-0.38307738 38:-0.080459155 39:0.090014808 40:0.22920932 41:0.31118873 42:-0.5341056 43:0.17416221 44:0.25604644 45:0.1397811 46:0.0010825957 47:0.28582409 48:-0.29240757 49:-0.31717625 50:-0.068220966 51:0.055509154 52:-0.099153668 53:0.027442526 54:-0.14399582 55:-0.091818549 56:0.40928152 57:0.45698771 58:-0.3925963 59:-0.27051947 60:0.35618293 61:-0.12679705 62:0.84669089 63:0.15124269 64:0.24185251 65:-0.090136059 66:-0.13956222 67:0.30663568 68:0.10252957 69:0.0549744 70:0.01474859 71:0.046320651 72:-0.75677043 73:0.62102038 74:0.197751 75:0.17842591 76:0.10999174 77:0.56199074 78:0.052719776 79:0.015747406 80:0.43244991 81:0.22602366 82:-0.32161662 83:-0.37699237 84:0.02926792 85:0.18727541 86:-0.1100504 87:-0.43314978 88:0.045147903 89:0.44362086 90:0.34955162 91:0.8360908 92:0.32865492 93:-0.55276036 94:-0.29413283 95:-0.19588672 96:-0.45310938 97:-0.69600809 98:0.14023322 99:-0.010376149 100:0.18232565 101:-0.085608602 102:-0.62466979 103:-0.023935376 104:0.40506563 105:-0.43433145 106:-0.20188412 107:-0.75030535 108:-0.44347075 109:0.077413887 110:0.13451244 111:0.17361054 112:0.34363335 113:0.57310438 114:0.20549951 115:0.49150079 116:0.25100806 117:-0.39301687 118:0.41649875 119:0.8537764 120:0.74168801 121:0.12933367 122:0.83342952 123:0.071362905 124:0.38076818 125:-0.73802549 126:-0.16381253 127:-0.71784878 128:0.47942927 129:-0.18617004 130:0.28691965 131:-0.048563913 132:0.74796581 133:-0.63180745 134:-0.83346963 135:0.34697828 136:0.19069284 #
